svm_type c_svc
kernel_type polynomial
degree 3
gamma 0.166667
coef0 0
nr_class 2
total_sv 108
rho -0.953531
label 1 -1
nr_sv 52 56
SV
1 1:0.72244356 2:0.32409972 3:0 4:0.26547922 5:0.54452926 6:0.18999152 
1 1:0.20519316 2:0.25 3:0.5 4:0.0083449235 5:0.063050533 6:0.92860454 
1 1:0.74658574 2:0.19988102 3:0 4:0.5138191 5:0.036432161 6:0.44974874 
1 1:0 2:1 3:2 4:1 5:1 6:0 
1 1:0.16487455 2:0.05 3:0 4:0.010434783 5:0.087826087 6:0.90173913 
1 1:0.58105647 2:0.10493827 3:0 4:0.049295775 5:0.41549296 6:0.53521127 
1 1:0 2:1 3:2 4:1 5:1 6:0 
1 1:0 2:1 3:2 4:1 5:1 6:0 
1 1:0.37656904 2:0.2734375 3:0 4:0.37340153 5:0.21227621 6:0.41432225 
1 1:0.39843069 2:0.024143057 3:0.5 4:0.0041058394 5:0.050410584 6:0.94548358 
1 1:0.1462141 2:0.6 3:0 4:0.027218935 5:0.18698225 6:0.78579882 
1 1:0.19614591 2:0.047619048 3:0 4:0.01255887 5:0.058869702 6:0.92857143 
1 1:0.21609077 2:0.2231405 3:0 4:0.029906542 5:0.26666667 6:0.70342679 
1 1:0 2:1 3:2 4:1 5:1 6:0 
1 1:0 2:1 3:2 4:1 5:1 6:0 
1 1:0.16820858 2:0.083246618 3:0 4:0.018902439 5:0.070121951 6:0.91097561 
1 1:0.32263978 2:0.16071429 3:0 4:0.029333333 5:0.15555556 6:0.81511111 
1 1:0 2:1 3:2 4:1 5:1 6:0 
1 1:0 2:1 3:2 4:1 5:1 6:0 
1 1:0 2:1 3:2 4:1 5:1 6:0 
1 1:0.75533428 2:0.075443787 3:0 4:0.56931608 5:0.10536044 6:0.32532348 
1 1:1 2:0.5 3:2 4:0.12578616 5:0.87421384 6:0 
1 1:0 2:1 3:2 4:1 5:1 6:0 
1 1:0 2:1 3:2 4:1 5:1 6:0 
1 1:0.17258883 2:0.75 3:2 4:0.054794521 5:0.46575342 6:0.47945205 
1 1:0.032672112 2:0.30245747 3:0 4:0.061096137 5:0.48607367 6:0.45283019 
0.2553258565548958 1:0.19266557 2:0.066666667 3:0 4:0.0073928043 5:0.065056678 6:0.92755052 
1 1:0.68202765 2:0.12313264 3:0 4:0.1125 5:0.33076923 6:0.55673077 
1 1:0.75296443 2:0.21375 3:0 4:0.48148148 5:0.059259259 6:0.45925926 
1 1:0.14315353 2:0.28822314 3:0 4:0.10663684 5:0.11185682 6:0.78150634 
1 1:0.15700141 2:0.125 3:0 4:0.04518664 5:0.15913556 6:0.7956778 
1 1:0.2188755 2:0.2231405 3:0 4:0.029906542 5:0.26666667 6:0.70342679 
1 1:0.47665056 2:0.1785124 3:0 4:0.090232558 5:0.35348837 6:0.55627907 
1 1:0 2:1 3:2 4:1 5:1 6:0 
1 1:0.22064688 2:0.19921875 3:0.44444444 4:0.16237204 5:0.06000706 6:0.7776209 
1 1:0.22784471 2:0.086917157 3:0.28571429 4:0.63920751 5:0.19290928 6:0.16788321 
1 1:0 2:1 3:2 4:1 5:1 6:0 
1 1:0.22758903 2:0.13699728 3:0.42105263 4:0.019023136 5:0.10411311 6:0.87686375 
1 1:0.096153846 2:1 3:2 4:0.090909091 5:0.90909091 6:0 
1 1:0.26287263 2:0.14285714 3:0 4:0.11508282 5:0.016564952 6:0.86835222 
1 1:0.084821429 2:0.5 3:2 4:0.064896755 5:0.41297935 6:0.52212389 
1 1:0.2983631 2:0.041666667 3:0 4:0.093181818 5:0.073484848 6:0.83333333 
1 1:0.54185022 2:0.083333333 3:0 4:0.098124098 5:0.33044733 6:0.57142857 
1 1:0 2:1 3:2 4:1 5:1 6:0 
1 1:0 2:1 3:2 4:1 5:1 6:0 
1 1:0.69774011 2:0.09369423 3:0 4:0.32115385 5:0.15961538 6:0.51923077 
1 1:0 2:1 3:2 4:1 5:1 6:0 
1 1:0.12246622 2:0.05 3:0 4:0.01 5:0.09 6:0.9 
1 1:0.58163265 2:0.1384083 3:2 4:0.09009009 5:0.58558559 6:0.32432432 
1 1:0.14534884 2:0.33333333 3:0 4:0.11312849 5:0.72206704 6:0.16480447 
0.9980059913892546 1:0.12677754 2:0.033333333 3:0 4:0.001754386 5:0.031578947 6:0.96666667 
0.9043481226145006 1:1 2:0.09375 3:0.5 4:0.37666667 5:0.046666667 6:0.57666667 
-1 1:0.36125654 2:0.18222222 3:0 4:0.72351615 5:0.041322314 6:0.23516153 
-1 1:0.13675214 2:0.1322314 3:0 4:0 5:0.84343822 6:0.15656178 
-1 1:0.47204969 2:0.43209877 3:2 4:0.24274554 5:0.74051339 6:0.016741071 
-1 1:0.018413598 2:0.5 3:2 4:0.1 5:0.9 6:0 
-1 1:0.070155902 2:0.48979592 3:2 4:0.96272855 5:0.018987342 6:0.018284107 
-1 1:0.3962585 2:0.21200649 3:0 4:0.58676208 5:0.21556351 6:0.19767442 
-1 1:0.21321586 2:0.28125 3:0 4:0.3805253 5:0.45803972 6:0.16143498 
-1 1:0.16436782 2:0.17013233 3:0 4:0 5:0.82857143 6:0.17142857 
-1 1:0.0090016367 2:0.75 3:2 4:0.26229508 5:0.73770492 6:0 
-1 1:0.013741802 2:0.16457725 3:0.41025641 4:0.0070580129 5:0.1397232 6:0.85321878 
-1 1:0.090729783 2:0.5 3:2 4:0.9351145 5:0.064885496 6:0 
-1 1:0.36801376 2:0.16608997 3:0.2 4:0.39924099 5:0.070588235 6:0.53017078 
-1 1:0.13901019 2:0.125 3:0 4:0.86547315 5:0.0342711 6:0.10025575 
-1 1:0.051948052 2:1 3:2 4:0.54887218 5:0.45112782 6:0 
-1 1:0.26092308 2:0.14167651 3:0 4:0.36101695 5:0.51694915 6:0.1220339 
-0.1018704994083729 1:1 2:1 3:2 4:0 5:1 6:0 
-1 1:0.34693878 2:0.59504132 3:0 4:0.77656676 5:0.038147139 6:0.1852861 
-1 1:0.005789909 2:0.5 3:2 4:0.0083538084 5:0.99164619 6:0 
-1 1:0.24154589 2:0.43209877 3:0 4:0.77641654 5:0.076569678 6:0.14701378 
-1 1:0.043158861 2:0.4 3:0 4:0.15902323 5:0.79511614 6:0.045860631 
-1 1:0.030541872 2:0.63 3:2 4:0.020070838 5:0.83471074 6:0.14521842 
-1 1:0.14627995 2:0.2962963 3:2 4:0.957638 5:0.020539153 6:0.02182285 
-1 1:0.15598549 2:0.33333333 3:0 4:0.75708502 5:0.10121457 6:0.1417004 
-1 1:0.042147923 2:0.28061224 3:0 4:0.65956139 5:0.036072966 6:0.30436565 
-1 1:0.071538462 2:0.33333333 3:0 4:0.076518219 5:0.89190283 6:0.031578947 
-1 1:0.11669659 2:0.4556213 3:0 4:0.94218289 5:0.012979351 6:0.044837758 
-1 1:0 2:1 3:2 4:1 5:1 6:0 
-1 1:0 2:1 3:2 4:1 5:1 6:0 
-1 1:0 2:1 3:2 4:1 5:1 6:0 
-1 1:0 2:1 3:2 4:1 5:1 6:0 
-1 1:0.032330997 2:0.39111111 3:0 4:0.8898001 5:0.066461644 6:0.043738254 
-0.6457174573372464 1:0.2 2:1 3:2 4:0.3129771 5:0.6870229 6:0 
-1 1:0.28928571 2:0.19834711 3:0 4:0.90697674 5:0.055813953 6:0.037209302 
-1 1:0 2:1 3:2 4:1 5:1 6:0 
-1 1:0.15682016 2:0.18518519 3:0.4 4:0.3690678 5:0.0040254237 6:0.62690678 
-1 1:0.092465753 2:0.37234568 3:0 4:0.85772358 5:0.050813008 6:0.091463415 
-1 1:0.40286299 2:0.071428571 3:0 4:0.070291777 5:0.41246684 6:0.51724138 
-1 1:0.093220339 2:0.20408163 3:0 4:0.038834951 5:0.11650485 6:0.84466019 
-1 1:0.1849866 2:0.31141869 3:2 4:0.0017152659 5:0.89708405 6:0.10463122 
-1 1:0.15883669 2:0.31141869 3:2 4:0.0018050542 5:0.89169675 6:0.1101083 
-1 1:0.76666667 2:0.48979592 3:2 4:0.056880734 5:0.10825688 6:0.83486239 
-1 1:0.24735729 2:0.05 3:0 4:0.77841727 5:0.017266187 6:0.20431655 
-1 1:0 2:0.0703125 3:0 4:0.3125 5:0.020833333 6:0.66666667 
-1 1:0.29350348 2:0.3025 3:0 4:0.68412303 5:0.12136326 6:0.19451372 
-1 1:0 2:1 3:2 4:1 5:1 6:0 
-1 1:0 2:1 3:2 4:1 5:1 6:0 
-1 1:0 2:1 3:2 4:1 5:1 6:0 
-1 1:0 2:1 3:2 4:1 5:1 6:0 
-0.05441651877548583 1:0.046103183 2:0.5 3:2 4:0.96216681 5:0.03783319 6:0 
-0.1230683023121717 1:0.1062591 2:1 3:2 4:0.55381727 5:0.44618273 6:0 
-1 1:0 2:1 3:2 4:1 5:1 6:0 
-1 1:0 2:1 3:2 4:1 5:1 6:0 
-1 1:0 2:1 3:2 4:1 5:1 6:0 
-0.160147001471999 1:0 2:1 3:2 4:1 5:1 6:0 
-1 1:0.17821782 2:0.18192628 3:0.071428571 4:0.0064460679 5:0.21314998 6:0.78040395 
-0.07246019125337508 1:0 2:1 3:2 4:1 5:1 6:0 
