svm_type c_svc
kernel_type polynomial
degree 3
gamma 0.142857
coef0 0
nr_class 2
total_sv 101
rho -1.00226
label 1 -1
nr_sv 53 48
SV
1 1:0.64094955 2:0.29585041 3:0.44907407 4:0.19467213 5:0.55135272 6:1 7:0.15983607 
1 1:0.75 2:0.19334975 3:0.66666667 4:0.19334975 5:0.77167747 6:0 7:0 
1 1:0.53205128 2:0.54217242 3:0.44879518 4:0.35760971 5:0.4158365 6:2 7:0 
1 1:0.49142857 2:0.43820225 3:0.62790698 4:0.43739968 5:0.7233359 6:0 7:0 
1 1:0.5 2:0.15186854 3:0.66666667 4:0.15186854 5:0.10392305 6:1 7:0.49138616 
1 1:0.6618705 2:0.613879 3:0.31521739 4:0.34341637 5:0.6457289 6:2 7:0.43060498 
0.380486579607789 1:0.58333333 2:0.66470588 3:1 4:0.66470588 5:0.53021963 6:2 7:0.98235294 
1 1:1 2:0.29090909 3:0.625 4:0.28181818 5:1.3416408 6:2 7:0 
1 1:0.5 2:0.22123894 3:1 4:0.22123894 5:1.4142136 6:2 7:0 
1 1:0.76785714 2:0.27050781 3:0.27906977 4:0.21582031 5:0.4330127 6:0 7:0.00390625 
1 1:1.0620155 2:0.43319415 3:0.40145985 4:0.42797495 5:0.66628204 6:2 7:0.94258873 
1 1:0.58139535 2:0.63112392 3:0.56 4:0.41786744 5:1.0604393 6:2 7:0.069164265 
1 1:0.33333333 2:0.1462141 3:1 4:0.1462141 5:1.4696938 6:2 7:0.24151436 
1 1:0 2:0 3:0 4:0 5:1 6:2 7:1 
1 1:0.59615385 2:0.16820858 3:0.67741935 4:0.16820858 5:0.23565317 6:0 7:0.022708158 
1 1:0.21875 2:0.32263978 3:1 4:0.32263978 5:0.60133779 6:2 7:0.98808433 
1 1:0.82638889 2:0.71583166 3:0 4:0 5:1 6:2 7:1 
1 1:1.1423611 2:0.75152749 3:0.24316109 4:0.46191446 5:1.2837247 6:2 7:1.7050916 
1 1:0.51152074 2:0.30403309 3:0.67567568 4:0.2688728 5:0.94395956 6:1 7:0 
1 1:0.3862069 2:0.21654501 3:0.75 4:0.20994091 5:0.98974332 6:2 7:0.025373653 
1 1:0.46583851 2:0.66810345 3:0.54666667 4:0.38608374 5:0.53004164 6:2 7:0.0030788177 
1 1:0.33333333 2:0.20093657 3:1 4:0.19923372 5:0.05 6:0 7:0 
1 1:0.33333333 2:0 3:0 4:0 5:1 6:2 7:1 
1 1:0.625 2:0.94117647 3:0.2 4:0.14285714 5:1.4142136 6:2 7:0.033613445 
1 1:0.92957746 2:0.22541436 3:0.27272727 4:0.039779006 5:0.59259259 6:2 7:0.72707182 
1 1:0.56435644 2:0.1959226 3:0.78947368 4:0.18901175 5:0.70272837 6:2 7:0.69039392 
1 1:0.77090909 2:0.58428077 3:0.5754717 4:0.32031636 5:0.40733322 6:2 7:0.53287197 
1 1:0.42372881 2:0.692607 3:0.96 4:0.6848249 5:0.609375 6:2 7:0.015564202 
1 1:1 2:0.22978723 3:0.33333333 4:0.19148936 5:0.28284271 6:0 7:0.14609929 
1 1:0.5212766 2:0.14911826 3:0.6122449 4:0.10814315 5:0.93234008 6:2 7:0.0075207469 
0.7433587928219989 1:0.63212435 2:0.62205514 3:0.48360656 4:0.43358396 5:0.45066462 6:2 7:0.0040100251 
0.4285527544957067 1:1 2:0.15474453 3:0.33333333 4:0.15474453 5:0.14285714 6:0 7:0 
1 1:0 2:0 3:0 4:0 5:1 6:2 7:1 
1 1:0.5 2:0.47909968 3:0.65517241 4:0.4670418 5:0.65443213 6:2 7:0.40032154 
1 1:0 2:0 3:0 4:0 5:1 6:2 7:1 
0.2695902171711313 1:0.6 2:0.98181818 3:0.66666667 4:0.90909091 5:1.4142136 6:2 7:0.018181818 
0.9002959961299773 1:0.97959184 2:0.53680203 3:0.35416667 4:0.32233503 5:0.46712803 6:0 7:0.10025381 
1 1:0.98342541 2:0.39880952 3:0.28651685 4:0.16712454 5:1.0602088 6:2 7:0.0073260073 
1 1:0.66666667 2:0.578125 3:0.57142857 4:0.3125 5:0.5787581 6:2 7:0.328125 
1 1:0.81666667 2:0.3872549 3:0.31292517 4:0.2124183 5:0.37635687 6:2 7:0.76184641 
1 1:0.33333333 2:0.096153846 3:1 4:0.096153846 5:1 6:2 7:0 
1 1:1 2:0.28947368 3:0.33333333 4:0.28947368 5:0.25 6:0 7:0 
1 1:0.99 2:0.24001681 3:0.60606061 4:0.24001681 5:0.124226 6:2 7:0.89953762 
0.1590416442837402 1:3 2:0.25810324 3:0.11764706 4:0.21008403 5:0.083333333 6:1 7:0 
1 1:0.16666667 2:0.13386504 3:0.5 4:0.066619751 5:0.067109308 6:1 7:0.048791931 
1 1:0 2:0 3:0 4:0 5:1 6:2 7:1 
0.09443675424142367 1:1.6666667 2:0.29787234 3:0.5 4:0.29787234 5:0.1 6:0 7:0 
1 1:0.35483871 2:0.48293963 3:0 4:0 5:1 6:2 7:1 
0.08602274919270071 1:1.7777778 2:0.92473118 3:0.125 4:0.086021505 5:1 6:2 7:0.80645161 
1 1:0.25 2:0.12890813 3:1 4:0.12890813 5:0.033333333 6:0 7:0 
1 1:0.35294118 2:0.54368932 3:1 4:0.54368932 5:0.25935166 6:2 7:0.99577881 
0.4624221420960625 1:1.3333333 2:1 3:0.75 4:1 5:0.025641026 6:0 7:0 
0.4781209789119205 1:0.14285714 2:1 3:1 4:1 5:0.016666667 6:0 7:0 
-1 1:0.68367347 2:0.76293436 3:0.19402985 4:0.21776062 5:0.21757132 6:0 7:0.0092664093 
-1 1:0.375 2:0 3:0 4:0 5:1 6:2 7:1 
-1 1:0.27777778 2:0.019017433 3:1 4:0.019017433 5:0.4472136 6:2 7:0.10301109 
-1 1:1 2:0.26666667 3:0.5 4:0.26666667 5:1 6:2 7:0 
-1 1:0.28571429 2:0.019455253 3:0.5 4:0.019455253 5:1 6:2 7:0.19455253 
-1 1:0.51612903 2:0.021373057 3:0.3125 4:0.012305699 5:0.64 6:2 7:1.0466321 
-1 1:0.79661017 2:0.40816327 3:0.80851064 4:0.3792517 5:1.3602116 6:0 7:0.62585034 
-1 1:1.2307692 2:0.054263566 3:0.4375 4:0.054263566 5:0.75592895 6:2 7:0.98449612 
-1 1:0.29411765 2:0.0050632911 3:0.8 4:0.0050632911 5:0.5 6:2 7:0.99493671 
-1 1:0.22222222 2:0.0072202166 3:0.5 4:0.0054151625 5:1 6:2 7:0.025270758 
-1 1:0.029363372 2:0.01543423 3:0.75862069 4:0.0086817541 5:0.97008038 6:1 7:0.00052960592 
-1 1:0.18181818 2:0.090729783 3:1 4:0.090729783 5:0.70710678 6:2 7:0.94477318 
-1 1:0.56122449 2:0.57941176 3:0.56363636 4:0.39705882 5:0.56945171 6:0 7:0.57941176 
-1 1:0.16666667 2:0 3:0 4:0 5:1 6:2 7:1 
-1 1:1.3333333 2:0.94444444 3:0.375 4:0.94444444 5:0.57735027 6:2 7:0 
-1 1:0.68125 2:0.2972973 3:0.4587156 4:0.10380835 5:0.83831135 6:2 7:0.25184275 
-1 1:1 2:1 3:1 4:1 5:1 6:2 7:0 
-1 1:0.72826087 2:0.79341963 3:0.089552239 4:0.065803668 5:1.5713484 6:2 7:0.14994606 
-0.3967252605090664 1:3 2:0 3:0 4:0 5:1 6:2 7:1 
-1 1:0.31818182 2:0.043158861 3:0.71428571 4:0.043158861 5:0.56568542 6:2 7:0.1046832 
-1 1:0.25 2:0.031007752 3:1 4:0.031007752 5:1 6:2 7:0.20155039 
-1 1:0.25 2:0.027272727 3:1 4:0.027272727 5:1 6:2 7:0.10909091 
-1 1:0.25 2:0.15384615 3:0 4:0 5:1 6:2 7:1 
-1 1:0.16363636 2:0.14627995 3:0.77777778 4:0.10403531 5:0.91268081 6:2 7:0.020807062 
-1 1:0.33333333 2:0.17073171 3:1 4:0.17073171 5:1 6:2 7:0.43902439 
-1 1:0.3 2:0.15598549 3:1 4:0.15598549 5:0.47140452 6:0 7:0.80169287 
-1 1:0.13636364 2:0.022672065 3:1 4:0.022672065 5:0.33333333 6:0 7:0.10121457 
-0.9532388232017821 1:0.25 2:0.024590164 3:1 4:0.024590164 5:1 6:2 7:0.19672131 
-1 1:0.5625 2:1 3:0.33333333 4:0.28721541 5:0.57735027 6:2 7:0.19614711 
-1 1:0.68518519 2:0.11466261 3:0.31081081 4:0.053526129 5:1.0718336 6:2 7:0.7201928 
-1 1:0.5 2:0 3:0 4:0 5:1 6:2 7:1 
-1 1:1 2:0.2 3:0.5 4:0.2 5:1 6:2 7:1.15 
-1 1:0.58139535 2:0.63747811 3:0.4 4:0.13309982 5:0.55560778 6:2 7:0.35901926 
-1 1:1 2:1 3:1 4:1 5:0.2 6:0 7:0 
-1 1:0.68627451 2:0.092465753 3:0.6 4:0.089975093 5:1.954046 6:0 7:0.21824408 
-1 1:0.45454545 2:0.038461538 3:0.6 4:0.022435897 5:0.94280904 6:2 7:0.23717949 
-1 1:0.38961039 2:0.31413613 3:0.46666667 4:0.14659686 5:0.95657483 6:2 7:1.1204188 
-1 1:0.41428571 2:0.27631579 3:0.48275862 4:0.12719298 5:0.95657483 6:2 7:0.89035088 
-1 1:0.23809524 2:0.25215517 3:1 4:0.25215517 5:0.070710678 6:0 7:0.28663793 
-1 1:0.14705882 2:0.081018519 3:0.8 4:0.064814815 5:0.25 6:0 7:0.50694444 
-1 1:0.0625 2:0.054644809 3:1 4:0.054644809 5:1 6:2 7:0.20218579 
-1 1:0 2:0 3:0 4:0 5:1 6:2 7:1 
-1 1:0 2:0 3:0 4:0 5:1 6:2 7:1 
-1 1:0 2:0 3:0 4:0 5:1 6:2 7:1 
-1 1:0.044247788 2:0.0086869362 3:0.6 4:0.005011694 5:0.94280904 6:2 7:0.20314066 
-0.6523645252416023 1:0 2:0 3:0 4:0 5:1 6:2 7:1 
-1 1:0.84337349 2:0.1255116 3:0.2 4:0.068212824 5:0.071428571 6:0 7:0 
-1 1:1 2:1.1176471 3:0.66666667 4:0.82352941 5:0.70710678 6:2 7:0.29411765 
